41 20
{ 0.186914 -0.029454 0.060029 -0.033692 0.194143 0.208114 0.030943 -0.168407 -0.042078 0.239536 0.192579 0.324572 -0.198268 0.952528 -0.125111 0.060124 -0.211360 0.015336 0.016641 -0.233227
$; 0.119663 -0.040924 0.076035 -0.013204 0.098798 0.153206 0.018612 -0.107871 -0.011665 0.175455 0.132884 0.255871 -0.103500 0.639467 -0.091385 0.043218 -0.141962 0.006826 -0.001801 -0.156183
if 0.146911 -0.018687 0.067787 -0.065542 0.156507 0.189667 0.049792 -0.099168 -0.045227 0.185573 0.143366 0.293077 -0.141254 0.747453 -0.085116 0.058494 -0.153468 -0.018870 -0.019610 -0.176705
} 0.062549 -0.017030 0.048529 -0.034937 0.108589 0.121122 0.016211 -0.070746 0.003586 0.096290 0.091305 0.180985 -0.085927 0.466988 -0.064024 0.025809 -0.109223 -0.016887 0.016924 -0.094790
= 0.042840 0.008560 0.050791 -0.044444 0.050880 0.102236 0.021144 -0.042188 -0.011490 0.089508 0.047993 0.127074 -0.074979 0.362158 -0.050113 0.038435 -0.069583 -0.008990 0.021830 -0.101510
; 0.116746 -0.042458 0.073317 -0.064337 0.141273 0.164481 0.041847 -0.131778 -0.034204 0.182276 0.133605 0.269738 -0.138990 0.686502 -0.058250 0.016798 -0.132664 -0.021142 0.007550 -0.163012
文字 0.125584 -0.027925 0.042068 -0.021652 0.125500 0.144981 0.009841 -0.095160 -0.028165 0.171045 0.144189 0.271209 -0.142782 0.744631 -0.086896 0.060832 -0.175632 -0.026039 -0.018163 -0.146681
}); 0.148859 -0.032267 0.083797 -0.038197 0.182208 0.200196 0.057553 -0.150827 -0.034126 0.172486 0.163825 0.288542 -0.152941 0.803000 -0.099630 0.031906 -0.159228 0.000113 -0.020388 -0.194681
$ 0.094227 0.003246 0.037356 -0.012078 0.107600 0.090045 0.024983 -0.089442 -0.011311 0.106187 0.091183 0.196781 -0.112493 0.487339 -0.033105 0.004869 -0.105673 -0.021622 -0.022081 -0.081910
ONEAD.cmd 0.056833 -0.013167 0.033797 -0.014673 0.086322 0.112365 0.019277 -0.075348 -0.026488 0.123735 0.085057 0.168494 -0.100531 0.445237 -0.049908 0.031968 -0.094985 0.004825 -0.002081 -0.076203
return 0.031330 -0.028850 0.038605 -0.017836 0.042381 0.073303 -0.012236 -0.016096 -0.014140 0.031529 0.031580 0.095455 -0.049934 0.212237 -0.002064 0.035365 -0.056787 0.004359 0.015359 -0.048361
圖片 0.087493 0.002317 0.040236 -0.020584 0.087872 0.107566 0.016414 -0.062965 -0.038399 0.100023 0.103666 0.157506 -0.097751 0.430067 -0.076012 0.012811 -0.110039 0.007923 -0.015309 -0.099308
|| 0.059999 0.014108 0.031152 -0.037550 0.037224 0.038817 0.029716 -0.045929 -0.020547 0.050790 0.027460 0.102911 -0.042732 0.224267 -0.007916 -0.012117 -0.052888 -0.005374 0.024305 -0.058367
characters*/ 0.150611 -0.016478 0.092498 -0.070739 0.171340 0.183568 0.018907 -0.127470 -0.065501 0.238592 0.164683 0.348427 -0.150514 0.884239 -0.085840 0.038925 -0.193187 -0.030960 0.013563 -0.187636
/*max 0.107790 -0.015258 0.024571 -0.037541 0.113671 0.129579 0.042007 -0.091582 -0.030972 0.148460 0.133967 0.225860 -0.117205 0.603627 -0.076657 0.046400 -0.142445 0.011316 -0.009494 -0.137430
the -0.003508 0.022139 0.019879 0.013366 0.019484 -0.003628 -0.020760 -0.000856 0.020767 -0.001030 0.012818 0.045294 0.008384 0.078454 0.005163 0.015190 -0.024539 -0.014009 0.000003 -0.001259
});
 0.038305 0.003551 0.043217 -0.002007 0.035449 0.070127 0.037190 -0.058860 -0.007899 0.074755 0.028939 0.118997 -0.072718 0.273238 -0.015977 0.015980 -0.072848 -0.017459 0.018474 -0.050336
false; 0.010997 -0.024550 0.020427 -0.017688 0.043386 0.046446 -0.004672 -0.014121 0.003212 0.008719 0.037143 0.048063 -0.034877 0.106793 -0.010588 -0.000032 -0.015423 -0.019911 -0.009130 -0.016292
MTBADVS.InStream.Default.run 0.027508 -0.009006 0.001035 -0.032920 0.048689 0.041786 -0.011860 -0.031948 -0.000532 0.053020 0.036469 0.104876 -0.030253 0.245105 -0.032100 -0.005171 -0.071994 -0.000906 -0.009104 -0.030376
中時電子報對留言系統使用者發布的文字、圖片或檔案保有片面修改或移除的權利。當使用者使用本網站留言服務時，表示已詳細閱讀並完全了解，且同意配合下述規定：請勿重覆刊登一樣的文章，或大意內容相同、類似的文章請不要刊登與主題無相關之內容發言涉及攻擊、侮辱、影射或其他有違社會善良風俗、社會正義、國家安全、政府法令之內容，本網站將會直接移除請勿以發文、回文等方式，進行商業廣告、騷擾網友等行為，或是為特定網站、blog宣傳，一經發現，將會限制您的發言權限或者封鎖帳號為避免留言系統變成發洩區和口水版，請勿轉貼新聞性文章、報導或相關連結請勿提供軟體註冊碼等違反智慧財產權之資訊禁止發表涉及他人隱私、含有個人對公眾人物之私評，且未經證實、未註明消息來源的網路八卦、不實謠言等請確認發表或回覆的內容（圖片）未侵害到他人的著作權、商標、專利等權利；若因發表或回覆內容而產生的版權法律責任將由使用者自行承擔，不代表中時電子報的立場，請遵守相關法律規範 0.044026 -0.003610 0.039536 -0.023758 0.040365 0.044470 0.027187 -0.014397 -0.015918 0.034602 0.050982 0.096519 -0.054625 0.206345 -0.036513 0.002057 -0.034022 -0.023777 -0.006569 -0.031599
else 0.076740 -0.009719 0.012463 -0.012673 0.053212 0.112820 0.040718 -0.063525 -0.005347 0.099240 0.092945 0.148234 -0.095535 0.417179 -0.066034 0.003556 -0.067020 -0.018368 -0.021100 -0.090232
false;}newspicnum 0.023523 -0.027995 0.010828 -0.019404 0.033882 0.028352 0.030501 -0.017959 -0.008323 0.038892 0.002716 0.042996 -0.015557 0.111018 0.007939 0.018726 -0.006198 -0.016418 -0.005104 -0.037682
}; 0.061878 -0.033048 0.041298 -0.016068 0.079597 0.072247 0.027975 -0.056684 -0.025663 0.107565 0.101023 0.159268 -0.088712 0.413063 -0.049198 0.042712 -0.101876 -0.000068 0.001520 -0.076055
違反上述規定者，中時電子報有權刪除留言，或者直接封鎖帳號！請使用者在發言前，務必先閱讀留言板規則，謝謝配合。 0.014155 0.007822 0.023441 -0.021280 0.022100 0.046286 0.005782 -0.036846 -0.024089 0.028435 0.033106 0.081028 -0.054158 0.198751 0.000670 0.008372 -0.013512 0.003231 -0.014907 -0.058953
ONEAD_slot; -0.005834 -0.017255 0.020434 -0.011896 0.032759 0.010378 0.016290 -0.027887 -0.002201 0.038410 0.008630 0.022258 0.002072 0.106090 -0.031209 -0.003018 -0.006925 0.005805 0.017104 -0.043610
NewsPicAd{ 0.022591 -0.013677 0.014979 -0.015885 0.025726 0.027741 -0.010403 -0.028214 0.009043 0.017123 0.008813 0.036409 -0.028505 0.053612 -0.010290 -0.000047 -0.027974 0.017616 0.013408 -0.027159
$;$; 0.037727 -0.013064 0.010451 -0.042581 0.035923 0.040373 0.008284 -0.062717 -0.022576 0.073605 0.072743 0.079221 -0.036975 0.286827 -0.006862 0.017758 -0.067607 0.014048 -0.007290 -0.075741
ONEAD.cmd.push 0.103843 -0.032408 0.016443 -0.020062 0.080555 0.135058 0.011771 -0.088596 -0.015873 0.115235 0.072354 0.189086 -0.081713 0.487574 -0.067679 0.035838 -0.082745 -0.027941 -0.017599 -0.102685
發表意見留言規則 0.026894 -0.014420 -0.010376 0.001734 0.037073 0.007178 0.004745 -0.023055 0.014999 0.008977 0.032157 0.048558 -0.017401 0.123621 0.007834 0.017580 -0.026741 -0.025115 0.021889 -0.010714
$.length;//newspicchange;$;if 0.052339 0.010691 0.046366 -0.033718 0.074460 0.050122 0.027198 -0.036110 -0.008122 0.090898 0.058522 0.136855 -0.044915 0.310660 -0.018682 0.019027 -0.057674 -0.005446 0.019976 -0.063889
}});
 0.023131 -0.020083 0.026245 -0.036345 0.066169 0.060596 -0.000087 -0.028813 -0.013048 0.051993 0.030850 0.092880 -0.036325 0.228774 -0.052030 0.025014 -0.041977 0.008103 0.004677 -0.048719
span 0.005287 0.016294 -0.004197 -0.014830 0.003186 0.017101 -0.002239 -0.003531 0.012793 -0.000515 0.014859 0.036863 -0.030294 0.075379 -0.015788 0.005233 0.003907 -0.009724 0.022048 -0.015335
.amlt 0.029508 -0.012112 -0.003578 -0.028639 0.018810 0.058270 0.021968 -0.018388 -0.014714 0.046917 0.015508 0.044467 -0.033194 0.147171 -0.025228 0.009452 -0.047300 0.015862 0.008013 -0.039277
255 0.136430 -0.017900 0.059076 -0.055029 0.142875 0.173759 0.021117 -0.136301 -0.039897 0.185028 0.124662 0.275756 -0.145754 0.755395 -0.112658 0.016423 -0.160765 -0.020477 0.007841 -0.165367
.amlt_eat 0.008330 0.014630 -0.009876 -0.004982 -0.004469 0.004174 -0.003944 -0.003370 0.006170 0.016638 0.016556 0.052591 -0.023893 0.121804 -0.023944 0.008672 -0.011476 0.019183 -0.014000 -0.031708
相關新聞 0.073174 -0.006822 0.023237 -0.002871 0.034976 0.074613 0.015498 -0.034170 0.000163 0.045947 0.035157 0.114737 -0.049437 0.311906 -0.044887 0.012571 -0.075845 0.001639 0.003194 -0.063837
Trump -0.009989 0.000937 0.004567 -0.023238 0.005804 0.041415 -0.000125 -0.035653 -0.023763 0.011237 0.039071 0.031290 -0.014591 0.080455 -0.008408 0.021937 -0.018573 -0.018693 -0.019576 -0.029192
a 0.042817 -0.027679 0.032936 -0.005254 0.018026 0.041373 -0.005705 -0.005876 -0.002436 0.057220 0.033780 0.068382 -0.036443 0.180707 -0.039056 0.008588 -0.044043 -0.009012 -0.025187 -0.027824
of 0.044734 -0.011270 0.017999 -0.019322 0.033181 0.009256 0.030772 -0.030991 -0.005771 0.044112 0.045660 0.047235 -0.016973 0.113174 -0.016935 0.026155 -0.030434 0.010689 -0.005885 -0.054064
on 0.040548 0.013765 0.007066 0.003914 0.023119 0.015032 0.004045 -0.021477 -0.008577 0.035355 0.023678 0.079618 -0.020499 0.198164 -0.020311 0.002206 -0.050218 0.019338 -0.004374 -0.040025
to 0.037906 -0.021910 0.003585 -0.019347 0.014683 0.019974 -0.015031 -0.037558 0.004093 0.003698 0.039731 0.046725 0.001801 0.099843 0.008668 -0.018998 -0.039907 0.003095 -0.015560 -0.020695
